;Exp. Group;Lower Bound Bias;Mean Bias;Upper Bound Bias;SD Bias;Lower Bound NO SEX;Mean NO SEX;Upper Bound NO SEX;SD NO SEX;Lower Bound NO SEX INF;Mean NO SEX INF;Upper Bound NO SEX INF;SD NO SEX INF
0;1;6.312794782292177e-05;0.0019236363636363637;0.0037841447794498056;0.0005157842816146085;0.0005745762374107127;0.0024363636363636362;0.00429815103531656;0.0005161388510399268;0.00040572855197913205;0.002265454545454545;0.004125180538929958;0.0005155673725481891
1;2;0.08824121261751228;0.09144363636363635;0.09464606010976043;0.0008878002471157835;0.0887058031140884;0.0917890909090909;0.0948723787040934;0.0008547724733946683;0.08771666693419475;0.09089090909090908;0.09406515124762341;0.0008799875327389424
2;3;0.13542736304155298;0.1384909090909091;0.14155445514026524;0.0008492995166429083;0.13394493513750433;0.13721454545454545;0.14048415577158657;0.0009064262188770825;0.13016420042102195;0.1334509090909091;0.13673761776079624;0.0009111663541887644
3;4;0.14803810071707735;0.15116727272727273;0.15429644473746812;0.0008674928442188778;0.14639146065563666;0.14959636363636364;0.15280126661709062;0.0008884875593728741;0.13988885370810558;0.1430218181818182;0.1461547826555308;0.0008685442197752387
4;5;-0.09190122750879763;-0.08919636363636363;-0.08649149976392963;0.000749862917819003;-0.0928143874155616;-0.0899090909090909;-0.0870037944026202;0.0008054283757766575;-0.09174218263732983;-0.08874545454545454;-0.08574872645357925;0.0008307757346996049
5;6;-0.003698670140726869;-0.0002654545454545454;0.0031677610498177786;0.0009517821173957908;-0.002778450124552984;0.0005272727272727268;0.0038329955790984377;0.0009164376102004625;-0.0024419001675585815;0.0007527272727272724;0.003947354713013126;0.0008856388959647565
6;7;0.04456509008185871;0.048149090909090905;0.0517330917363231;0.000993583945263639;0.04341297789491653;0.046985454545454546;0.05055793119599256;0.0009903891254246697;0.044187171469068885;0.047858181818181814;0.05152919216729474;0.001017705386131865
7;8;0.05834479399171161;0.062065454545454535;0.06578611509919746;0.0010314697931667596;0.05863793256644081;0.06254545454545456;0.0664529765244683;0.0010832729374984959;0.057076141494120596;0.060792727272727276;0.06450931305133396;0.0010303401530380055
8;9;0.043619026659608755;0.04734181818181817;0.05106460970402759;0.0010320605564389327;0.0424848134459708;0.0463490909090909;0.050213368372211006;0.0010712843641739163;0.0398690240170368;0.04358909090909092;0.04730915780114504;0.0010313052137619686
9;10;-0.14382736421776043;-0.14074545454545453;-0.13766354487314864;0.000854390419747938;-0.1426589152547955;-0.13953818181818184;-0.1364174483815682;0.0008651534387232045;-0.14069763936003943;-0.13722545454545454;-0.13375326973086965;0.0009625854605128517
10;11;-0.05464998970781416;-0.051265454545454545;-0.04788091938309493;0.0009382865578459608;-0.05356877892879347;-0.050196363636363636;-0.0468239483439338;0.0009349265954013619;-0.05319663478428055;-0.049581818181818185;-0.04596700157935582;0.0010021269286516173
11;12;-0.006762921862594558;-0.0032872727272727272;0.0001883764080491037;0.0009635458658339997;-0.007619200289228066;-0.003978181818181817;-0.0003371633471355678;0.0010093908097766004;-0.007053811721757479;-0.0035345454545454543;-1.5279187333429138e-05;0.0009756377385967667
12;13;0.005603327279221127;0.009723636363636363;0.0138439454480516;0.001142263395893371;0.008015833339435665;0.012087272727272726;0.01615871211510979;0.0011287153672319271;0.007585536781228814;0.011752727272727274;0.015919917764225733;0.0011552602158313935
13;14;-0.00899843736706638;-0.004814545454545455;-0.0006306535420245295;0.0011598903106865403;-0.009293392641770506;-0.005101818181818184;-0.0009102437218658612;0.0011620201248675425;-0.008176253702918326;-0.004083636363636365;8.98097564559601e-06;0.00113458647986933
14;15;-0.05397520417964564;-0.050429090909090916;-0.046882977638536195;0.0009830804688821667;-0.054302594240446665;-0.05054909090909091;-0.04679558757773516;0.0010405747175590825;-0.05083712029512124;-0.047014545454545455;-0.04319197061396967;0.0010597232462409667
15;16;-0.15754429303984208;-0.1544;-0.15125570696015794;0.0008716848109669431;-0.15511749745440956;-0.15159999999999998;-0.1480825025455904;0.0009751473748699122;-0.14833384619907966;-0.14500363636363636;-0.14167342652819306;0.0009232260778831475
16;17;-0.06937729662594626;-0.06567999999999999;-0.061982703374053726;0.001024992667553206;-0.06832771912370501;-0.06445454545454546;-0.06058137178538591;0.001073750638017212;-0.06547798393706046;-0.06167636363636363;-0.057874743335666806;0.001053914069455648
17;18;-0.021176690193481843;-0.01760363636363636;-0.014030582533790878;0.0009905491354584514;-0.020994357574333766;-0.017341818181818184;-0.013689278789302603;0.0010125847271773983;-0.021441516273651352;-0.017858181818181818;-0.014274847362712282;0.0009933992086196268
18;19;-0.009155644512502208;-0.005309090909090909;-0.0014625373056796104;0.001066370821096313;-0.009378217735607618;-0.005483636363636363;-0.0015890549916651093;0.0010796854440744727;-0.01072736787079543;-0.00670909090909091;-0.002690813947386391;0.001113977275461633
19;20;-0.0227740671268606;-0.018709090909090908;-0.014644114691321215;0.001126923598110209;-0.02368868039665224;-0.01976363636363636;-0.015838592330620484;0.0010881305344645105;-0.02348387886447281;-0.01971636363636364;-0.01594884840825447;0.001044459202057831
20;21;-0.06853961133802658;-0.0651709090909091;-0.061802206843791625;0.0009338972367632819;-0.06880451005717915;-0.06516363636363637;-0.061522762670093586;0.0010093506734568803;-0.0685315967465935;-0.06486545454545455;-0.061199312344315596;0.0010163558011559472
21;22;-0.15829814352743962;-0.15519272727272726;-0.1520873110180149;0.0008609070931564933;-0.15715732629646048;-0.15406545454545456;-0.15097358279444864;0.0008571521829100942;-0.1494312317516198;-0.1460581818181818;-0.14268513188474383;0.0009351025354044771
22;23;-0.049991759074044684;-0.046170909090909096;-0.04235005910777351;0.0010592450681536658;-0.05187023726712458;-0.04805818181818182;-0.04424612636923906;0.0010568069805523255;-0.048340279082839256;-0.04429818181818181;-0.04025608455352437;0.0011205809208641427
23;24;-0.0011165939325710208;0.00228;0.005676593932571021;0.0009416295817623168;-0.003395003616332964;0.00035636363636363627;0.004107730889060236;0.0010399825376004646;-0.0040773257632364885;-0.00017090909090909076;0.003735507581418307;0.0010829665159793357
24;25;0.010636109071616955;0.013992727272727273;0.01734934547383759;0.000930547205698749;0.009867037588129422;0.013305454545454544;0.016743871502779666;0.0009532240785108375;0.0097457285729479;0.013236363636363636;0.016726998699779373;0.0009677003787029265
25;26;-0.004516514422976993;-0.00096;0.0025965144229769927;0.0009859639553982656;-0.004835202593963363;-0.0012254545454545456;0.0023842935030542714;0.001000721785607095;-0.005436874459145062;-0.0018836363636363636;0.0016696017318723348;0.0009850556669996724
26;27;-0.04937023851451262;-0.04621454545454545;-0.04305885239457829;0.0008748452111783287;-0.04865507469001785;-0.04547272727272727;-0.04229037985543669;0.000882234534670287;-0.04913821174982362;-0.045927272727272726;-0.04271633370472183;0.0008901609167570648
27;28;-0.13902488682406286;-0.13652363636363635;-0.13402238590320983;0.0006934156604205627;-0.1381645491293224;-0.13552;-0.1328754508706776;0.0007331420063830957;-0.13508675216337301;-0.13228727272727275;-0.1294877932911725;0.0007760929633916932
28;29;0.048091839326216176;0.051189090909090906;0.054286342491965636;0.0008586436207837817;0.043933238473740525;0.04687636363636364;0.049819488798986754;0.0008159155233069674;0.04152663201353624;0.04452;0.04751336798646375;0.0008298442207429339
29;30;0.06108036771251413;0.06455999999999999;0.06803963228748586;0.0009646501055461269;0.05872202675414244;0.06244727272727272;0.066172518700403;0.0010327409979753515;0.057472984194290554;0.061040000000000004;0.06460701580570945;0.0009888752285226346
30;31;0.04519197269999606;0.04891636363636363;0.05264075457273121;0.001032503958186304;0.04474194950769798;0.048392727272727275;0.05204350503775657;0.0010120963554184957;0.04266027818819141;0.04632727272727273;0.04999426726635405;0.0010165920927575121
31;32;-0.000593209395179354;0.0028327272727272724;0.006258663940633898;0.0009497641978366365;0.0002992037880372041;0.0036581818181818182;0.007017159848326432;0.0009312014154367125;0.0006609952420755785;0.003916363636363636;0.007171732030651694;0.0009024779648226714
32;33;-0.0916185451119772;-0.08887272727272727;-0.08612690943347734;0.0007612164877216625;-0.09319793864167825;-0.09032363636363636;-0.08744933408559447;0.0007968359202368291;-0.09326621485420829;-0.09029090909090909;-0.08731560332760989;0.0008248368739767971
33;34;0.14727067548674821;0.15024;0.1532093245132518;0.0008231787063852741;0.1471332375487994;0.15017818181818182;0.15322312608756425;0.0008441425898378794;0.1396288555301775;0.14318545454545456;0.1467420535607316;0.0009859874067185289
34;35;0.13249749300692307;0.13562545454545452;0.13875341608398598;0.000867157268065457;0.1319620039584943;0.13537454545454544;0.13878708695059658;0.0009460506865007776;0.12863866223127324;0.13197454545454546;0.13531042867781767;0.0009247988975709156
35;36;0.08731937503705246;0.09020727272727272;0.09309517041749298;0.0008006049437166851;0.08709354096810286;0.09007636363636363;0.09305918630462441;0.000826920767493545;0.08799248686703678;0.09085090909090908;0.09370933131478137;0.0007924335309424565
36;37;-0.0032012328750120134;-0.0011127272727272728;0.0009757783295574675;0.0005789913942697993;-0.0026403291721292283;-0.0005781818181818181;0.0014839655357655923;0.0005716841603611876;-0.002900082633945237;-0.0008836363636363635;0.0011328099066725103;0.0005590145586581468
37;38;-0.0014400557037612472;0.0005298701298701298;0.002499795963501507;0.0005461178096791266;-0.0007814852847117936;0.0012303696303696302;0.0032422245454510543;0.0005577417082708551;-0.0009764557169942654;0.0010577422577422576;0.0030919402324787806;0.0005639358210603095
38;39;0.08899827433748894;0.0925034965034965;0.09600871866950406;0.0009717443261353646;0.09035308282293288;0.09406913086913087;0.09778517891532885;0.0010301910787732717;0.09240228642471014;0.09614145854145854;0.09988063065820695;0.0010366017093382705
39;40;0.13563491809087122;0.1391012987012987;0.14256767931172618;0.0009609763749283788;0.13826127040337277;0.14196443556443555;0.14566760072549834;0.0010266195874550348;0.13915771788148815;0.14275484515484516;0.14635197242820217;0.0009972229584103113
40;41;0.14603482117720012;0.14961638361638363;0.15319794605556714;0.0009929079567987103;0.1508162786750251;0.1544831168831169;0.1581499550912087;0.0010165487534925866;0.15108913518303996;0.15484395604395604;0.15859877690487212;0.0010409399731161108
41;42;-0.09282791606999193;-0.09004595404595404;-0.08726399202191616;0.0007712366532994926;-0.0921960032228575;-0.08921398601398602;-0.08623196880511454;0.0008266974719207089;-0.09045478380537661;-0.08738941058941058;-0.08432403737344454;0.0008498060576557177
42;43;-0.0020604899716790007;0.0013870129870129872;0.004834515945704975;0.0009557429688571137;-0.002098121305587518;0.0013094905094905096;0.004717102324568538;0.0009446840428792294;-0.0024428982361341415;0.0009478521478521481;0.0043386025318384374;0.0009400095888167123
43;44;0.04473351428609794;0.04858261738261738;0.052431720479136815;0.001067077610950143;0.047185339809939955;0.05094865134865135;0.05471196288736274;0.0010432938233378352;0.047616006623127;0.05152887112887113;0.05544173563461527;0.0010847540333582173
44;45;0.05751807634649205;0.061652347652347665;0.06578661895820327;0.0011461341090243404;0.059588087105760495;0.06363116883116883;0.06767425055657716;0.0011208538405547278;0.06378918534415859;0.06790249750249751;0.07201580966083643;0.0011403236548746757
45;46;0.04264306194137967;0.046501498501498505;0.05035993506161734;0.0010696651046570634;0.04740211620035235;0.05127032967032967;0.05513854314030699;0.0010723755339058162;0.0536756064796945;0.05754565434565434;0.06141570221161418;0.0010728840791002369
46;47;-0.14334294520480495;-0.1405782217782218;-0.13781349835163864;0.0007664576383116221;-0.14103990799692165;-0.137781018981019;-0.13452212996511634;0.0009034539783009728;-0.13531478375083358;-0.13191568431568432;-0.12851658488053505;0.0009423241762271542
47;48;-0.05422828851129144;-0.050656943056943064;-0.04708559760259469;0.0009900755266206655;-0.05288749217167025;-0.04921598401598402;-0.045544475860297785;0.001017843391853105;-0.04958166686780478;-0.04584935064935065;-0.04211703443089651;0.0010347010651130272
48;49;-0.0065238935425199936;-0.0027220779220779217;0.0010797376983641498;0.00105396821747972;-0.0070407967670159;-0.002964235764235764;0.0011123252385443717;0.001130135220247193;-0.00744193990594887;-0.0032327672327672327;0.0009764054404144042;0.0011668988352732754
49;50;0.004688857053557144;0.009182017982017983;0.013675178910478822;0.0012456282175169603;0.0076715588571043564;0.012037162837162838;0.016402766817221318;0.0012102659109358871;0.007804446273570227;0.012177422577422577;0.01655039888127493;0.0012123097225626076
50;51;-0.008569608629675082;-0.004115884115884116;0.0003378403979068514;0.001234695354952583;-0.0057899124677764785;-0.0014117882117882122;0.0029663360442000537;0.0012137368769746175;-0.0016992568999882282;0.0025034965034965036;0.006706249906981236;0.00116511923654587
51;52;-0.054503773739137444;-0.05078481518481518;-0.04706585663049292;0.0010309979519533402;-0.049891449805522584;-0.04595844155844155;-0.04202543331136052;0.001090338434410194;-0.04017679620811088;-0.036090709290709296;-0.03200462237330771;0.0011327760666889433
52;53;-0.15754984282112613;-0.15473726273726274;-0.15192468265339934;0.0007797248245204975;-0.14907366308451606;-0.1461054945054945;-0.14313732592647296;0.0008228582495136633;-0.14046136314944815;-0.13728631368631367;-0.13411126422317918;0.000880211340359707
53;54;-0.06816219485452256;-0.06434845154845156;-0.06053470824238057;0.0010572749011319687;-0.06422949756684167;-0.060427572427572435;-0.0566256472883032;0.001053998579121253;-0.06091171869998953;-0.05681318681318681;-0.052714654926384094;0.0011362261556795222
54;55;-0.021989302876098876;-0.017993606393606393;-0.013997909911113908;0.0011077173434183801;-0.0215045522748166;-0.01735104895104895;-0.013197545627281298;0.0011514657551800085;-0.02129228965191321;-0.017136863136863138;-0.012981436621813067;0.0011519989168822505
55;56;-0.009197209209889309;-0.0051612387612387615;-0.0011252683125882144;0.001118882398371128;-0.009476539957173964;-0.00541938061938062;-0.0013622212815872772;0.0011247565432402607;-0.009663455169945906;-0.005700699300699301;-0.001737943431452696;0.0010985852962883795
56;57;-0.023078546000086103;-0.019214785214785216;-0.015351024429484326;0.0010711411268224786;-0.022780659689827815;-0.01891988011988012;-0.015059100549932427;0.001070314651647082;-0.020848161046083162;-0.01684355644355644;-0.01283895184102972;0.0011101869201498493
57;58;-0.06899722197376;-0.06521718281718283;-0.06143714366060567;0.0010479311806809613;-0.06560555702509431;-0.06192967032967033;-0.05825378363424636;0.0010190572439130882;-0.06094104108913981;-0.057114485514485516;-0.053287929939831225;0.001060826815593048
58;59;-0.15806734025052763;-0.1553138861138861;-0.1525604319772446;0.0007633334801151569;-0.15074789803539848;-0.14776743256743258;-0.14478696709946667;0.0008262672865147021;-0.13944602571129522;-0.1360907092907093;-0.13273539287012337;0.0009301863162091437
59;60;-0.04938015392617005;-0.04553366633366634;-0.04168717874116262;0.001066352521050875;-0.045288836269039;-0.04137662337662337;-0.03746441048420775;0.0010845733881594758;-0.035764012771335625;-0.031740259740259735;-0.027716506709183845;0.0011154953930271215
60;61;-0.002015249976264825;0.001783016983016983;0.0055812839422987905;0.0010529844306654905;-0.0028903967556155076;0.0013610389610389615;0.00561247467769343;0.0011786153173548417;0.0008624903513060724;0.004923076923076923;0.008983663494847773;0.0011257066670881234
61;62;0.01062788668634449;0.014479520479520478;0.01833115427269647;0.0010677791899088244;0.010999020513513315;0.014696103896103898;0.018393187278694483;0.0010249335506096417;0.011331111955566695;0.015237162837162838;0.019143213718758982;0.0010828651086930597
62;63;-0.0044553372144610385;-0.0007024975024975027;0.0030503422094660332;0.001040390743948121;-0.004396394113626342;-0.0006585414585414581;0.0030793111965434264;0.001036235918148909;-0.0046077725937242065;-0.0009802197802197801;0.002647333033284646;0.0010056577578631313
63;64;-0.04933017187872865;-0.04565914085914086;-0.041988109839553076;0.001017711116557988;-0.04862254549489942;-0.04498061938061938;-0.04133869326633934;0.0010096424335313354;-0.04823786597642016;-0.04448071928071928;-0.04072357258501841;0.0010415847587098971
64;65;-0.13856212618290853;-0.13602317682317683;-0.13348422746344513;0.000703866835771623;-0.13545626701361962;-0.13281998001998002;-0.13018369302634042;0.0007308515143425628;-0.1289806934524353;-0.12635244755244757;-0.12372420165245983;0.0007286223012536192
65;66;0.04735095475900149;0.05103056943056943;0.05471018410213738;0.0010200907417897709;0.04899705059722829;0.052622177822177825;0.05624730504712736;0.001004985317771143;0.05452694085884439;0.058179420579420583;0.06183190029999678;0.0010125681844688963
66;67;0.059482873089005135;0.06326593406593407;0.06704899504286302;0.001048768912682633;0.061923679040757414;0.06574745254745255;0.0695712260541477;0.0010600555495716112;0.06324537216969665;0.06728511488511489;0.07132485760053313;0.001119928174831096
67;68;0.043835238616049835;0.047809790209790204;0.05178434180353057;0.0011018553966719248;0.0443512437874311;0.04811348651348651;0.051875729239541916;0.0010429975189711024;0.04530120768837959;0.04911408591408591;0.05292696413979223;0.0010570350769792578
68;69;-0.0018396786728210558;0.001963236763236763;0.005766152199294582;0.0010542731167225588;-0.0019014160167844507;0.0018077922077922076;0.005517000432368866;0.0010282948914454714;-0.0008058713383398597;0.0028811188811188808;0.006568109100577622;0.0010221354472251427
69;70;-0.0916801527805545;-0.0888047952047952;-0.0859294376290359;0.0007971284778895859;-0.0924882108582777;-0.0895088911088911;-0.0865295713595045;0.0008259496617034779;-0.090564900824181;-0.08751968031968033;-0.08447445981517965;0.0008442191698365621
70;71;0.14664986303354907;0.15017862137862137;0.15370737972369367;0.0009782692045544477;0.15030104884289605;0.15413906093906096;0.15797707303522587;0.0010640028795478964;0.14847387957687802;0.15266413586413585;0.15685439215139368;0.001161654691015971
71;72;0.13170756062360636;0.13517002997002997;0.13863249931645358;0.0009598920645983158;0.13410935520246786;0.13768711288711286;0.14126487057175785;0.0009918531738320312;0.13555666973043431;0.13897582417582416;0.142394978621214;0.0009478839785703105
72;73;0.08806238978559822;0.09128511488511488;0.09450783998463155;0.0008934283425795842;0.08955781351416794;0.09274365634365635;0.09592949917314475;0.0008832035594024938;0.09252400466838762;0.09586493506493506;0.0992058654614825;0.0009261981133013164
73;74;-0.0036344045398624767;-0.0016023976023976023;0.0004296093350672724;0.0005633284050574886;-0.003620347272493862;-0.0016407592407592408;0.00033882879097538025;0.00054879643766336;-0.003786332627246502;-0.0018441558441558445;9.802093893481302e-05;0.0005384250070145524
74;75;-0.0017328005858001482;0.0013363636363636362;0.00440552785852742;0.0008508570292028931;-0.001298160930189062;0.0017749999999999997;0.004848160930189062;0.0008519650269738895;-0.0017498401083662124;0.001393181818181818;0.004536203744729848;0.0008713324232799885
75;76;0.09211238663887526;0.09719090909090909;0.10226943154294292;0.0014079065874263621;0.0948621466030588;0.0998159090909091;0.10476967157875938;0.0013733196820655835;0.09947146135945116;0.1047090909090909;0.10994672045873065;0.001452015466129054
76;77;0.13485784956944413;0.13953863636363636;0.1442194231578286;0.0012976432858423938;0.14284261543996918;0.14774772727272728;0.15265283910548538;0.0013598323777494518;0.15121703808376136;0.15619772727272727;0.16117841646169317;0.0013807845067732426
77;78;0.146236201526108;0.1507;0.155163798473892;0.0012374881347269548;0.16051457639221364;0.16480909090909088;0.1691036054259681;0.001190557949721817;0.17221895622663363;0.17685227272727272;0.1814855892279118;0.0012844832103220507
78;79;-0.09241422080285602;-0.08918636363636363;-0.08595850646987124;0.0008948510931867685;-0.0905624387307089;-0.08733181818181818;-0.08410119763292745;0.0008956171790550396;-0.08992671780737184;-0.08655909090909092;-0.08319146401081;0.0009335991203869027
79;80;-0.002004303386842005;0.002525;0.007054303386842004;0.001255647904487183;-0.0026747844637194417;0.0019090909090909091;0.0064929662819012595;0.0012707767651468427;-0.002906198721451878;0.0014522727272727274;0.005810744175997333;0.0012082885763971833
80;81;0.043672213035442296;0.04884772727272727;0.05402324151001225;0.0014347953872044631;0.045378516905216555;0.05021590909090909;0.05505330127660162;0.001341058622567247;0.04730698844208608;0.05193181818181818;0.05655664792155029;0.0012821304459698791
81;82;0.05694307004635354;0.061988636363636364;0.0670342026809192;0.001398770237306758;0.06307950935505684;0.06803863636363637;0.0729977633722159;0.001374806875268807;0.07136829381163615;0.07616590909090909;0.08096352437018203;0.0013300313662925104
82;83;0.04013141491995741;0.04442499999999999;0.04871858508004257;0.0011903002841794313;0.05487703714097139;0.06005681818181818;0.06523659922266498;0.0014359782629126399;0.07057610049258282;0.07616818181818182;0.0817602631437808;0.0015502792810498968
83;84;-0.14318546865281445;-0.13993863636363638;-0.1366918040744583;0.0009001115208955634;-0.1361800185249279;-0.13240454545454544;-0.128629072384163;0.0010466653355669495;-0.13071951587072117;-0.12676590909090912;-0.12281230231109706;0.0010960489161885554
84;85;-0.05312004871058321;-0.04858636363636364;-0.04405267856214407;0.001256862629159799;-0.051618309075556104;-0.04685454545454545;-0.04209078183353479;0.0013206467523397462;-0.048886587287526935;-0.04448863636363636;-0.04009068543974579;0.0012192333765195177
85;86;-0.007154596860638673;-0.002579545454545455;0.001995505951547763;0.0012683305180374482;-0.008786185782024631;-0.0040704545454545455;0.00064527669111554;0.0013073308497120843;-0.008033536974968544;-0.0035181818181818183;0.000997173338604908;0.001251781070154315
86;87;0.006511959725279066;0.011656818181818181;0.016801676638357296;0.0014262967587032717;0.007241471394553341;0.012286363636363637;0.017331255878173933;0.0013985833649817537;0.008872945555621188;0.013845454545454546;0.018817963535287904;0.0013785167298058353
87;88;-0.012048491738908871;-0.0070613636363636365;-0.0020742355338184016;0.0013825695513270118;-0.0022954398349377763;0.002813636363636364;0.007922712562210504;0.0014163769292297008;0.0015336744431743658;0.006972727272727273;0.01241178010228018;0.0015078555584648065
88;89;-0.05500211889297738;-0.050875;-0.04674788110702261;0.0011441512627728262;-0.044934583914146314;-0.04080227272727273;-0.03666996154039914;0.0011455907099445883;-0.029774528004001957;-0.025088636363636365;-0.020402744723270774;0.001299058490091891
89;90;-0.15583294352463678;-0.15271818181818184;-0.1496034201117269;0.0008634979103075706;-0.14089270548683624;-0.13728181818181817;-0.1336709308768001;0.0010010376189541585;-0.1322424377276022;-0.12860000000000002;-0.12495756227239785;0.0010097842668644072
90;91;-0.06624545749626481;-0.061595454545454544;-0.05694545159464427;0.0012891091548440383;-0.059451445858722834;-0.05485;-0.05024855414127717;0.001275647788775095;-0.0536621559546966;-0.04906590909090909;-0.04446966222712158;0.0012742064838903433
91;92;-0.022061470593861748;-0.017056818181818183;-0.01205216576977462;0.0013874277735788233;-0.022614013727548773;-0.01734772727272727;-0.01208144081790577;0.001459959951156286;-0.020278083892426715;-0.01526818181818182;-0.010258279743936925;0.0013888831248280939
92;93;-0.00800452798834675;-0.0032181818181818184;0.0015681643519831145;0.0013269072582281175;-0.00693378829338176;-0.0022795454545454542;0.002374697384290851;0.0012902845688228443;-0.008093333395152879;-0.0034000000000000002;0.0012933333951528781;0.0013011215499062346
93;94;-0.024299826886114678;-0.019734090909090913;-0.015168354932067146;0.0012657480239999688;-0.020646424001747377;-0.016004545454545452;-0.011362666907343527;0.0012868568459358592;-0.018599284079589426;-0.013881818181818181;-0.009164352284046936;0.0013078117456725006
94;95;-0.06856453780658177;-0.06426136363636363;-0.05995818946614549;0.001192958644628381;-0.06541005447987738;-0.06117045454545454;-0.0569308546110317;0.0011753341118607957;-0.05977238238524042;-0.05537727272727273;-0.050982163069305045;0.0012184456991887129
95;96;-0.15484431757006178;-0.15191136363636365;-0.14897840970266552;0.0008130957779300495;-0.13941631813512936;-0.1360431818181818;-0.13267004550123426;0.0009351264832974517;-0.12838064463995075;-0.12467045454545453;-0.1209602644509583;0.001028567092886111
96;97;-0.04909003941721107;-0.04428636363636364;-0.0394826878555162;0.0013317115045946284;-0.038879104222838946;-0.034086363636363644;-0.029293623049888345;0.0013286799669108382;-0.024943777591135675;-0.020179545454545453;-0.015415313317955232;0.0013207766377891091
97;98;-0.005129065812860464;3.1818181818181895e-05;0.005192702176496827;0.001430739480169367;-0.0006272186276101458;0.004956818181818182;0.01054085499124651;0.0015480491191442812;0.0049166711521913846;0.010354545454545455;0.015792419756899524;0.00150752883819875
98;99;0.01005825691340054;0.014725000000000002;0.019391743086599463;0.0012937499825010218;0.010967516858782118;0.015586363636363636;0.020205210413945154;0.0012804718037361;0.013388829240448734;0.01779545454545455;0.02220207985046036;0.0012216381543716092
99;100;-0.005309127732868332;-0.0007431818181818181;0.003822764096504696;0.0012658062245142173;-0.006174154882880733;-0.0015636363636363636;0.0030468821556080064;0.0012781629806708477;-0.006374745964270242;-0.002029545454545455;0.0023156550551793323;0.0012046095058376558
100;101;-0.05200666208483226;-0.04777272727272727;-0.04353879246062228;0.0011737635836008109;-0.05301945995114972;-0.048711363636363636;-0.04440326732157755;0.001194323198950418;-0.0499454451142716;-0.045725;-0.041504554885728406;0.0011700238670550231
101;102;-0.13759454527435777;-0.13465000000000002;-0.13170545472564227;0.0008163092174739115;-0.1286513451163434;-0.12569772727272727;-0.12274410942911113;0.0008188243840690062;-0.12295132926538106;-0.1200409090909091;-0.11713048891643714;0.0008068487979563159
102;103;0.043952821635914144;0.04882499999999999;0.05369717836408584;0.001350702311292444;0.05346493037183;0.058811363636363634;0.06415779690089726;0.0014821788588052483;0.06744763707528714;0.072925;0.07840236292471287;0.0015184761741753915
103;104;0.058256583377432926;0.06287045454545455;0.06748432571347618;0.0012790924274427005;0.06393335921714698;0.06860227272727273;0.07327118623739849;0.0012943516838047058;0.07023159825165919;0.07493636363636365;0.07964112902106811;0.0013042908129249726
104;105;0.039755392092195196;0.04447954545454545;0.04920369881689571;0.001309665695423219;0.04226146429009968;0.04683863636363636;0.05141580843717304;0.0012689184255817367;0.04430398703235373;0.048729545454545456;0.053155103876737185;0.0012268869369965415
105;106;-0.005285601411727025;-0.0012590909090909094;0.002767419593545206;0.0011162598402479317;-0.005351374753591092;-0.0012886363636363633;0.0027741020263183655;0.0011263032104773946;-0.004986211500259163;-0.0009045454545454544;0.003177120591168254;0.001131550479044049
106;107;-0.09104736133232401;-0.08801363636363636;-0.08497991139494872;0.0008410322900403137;-0.08915440503007514;-0.08609090909090908;-0.08302741315174302;0.0008492856247152193;-0.08702151630357373;-0.08397045454545456;-0.08091939278733538;0.0008458385265541863
107;108;0.1472899590931557;0.15168636363636365;0.1560827681795716;0.0012188046771152525;0.16017721586766312;0.1647840909090909;0.1693909659505187;0.001277152908062614;0.1666428631198204;0.1718159090909091;0.1769889550619978;0.0014341111156924078
108;109;0.13205644642579237;0.13672954545454544;0.1414026444832985;0.0012955120250856256;0.1372619287625695;0.14179318181818182;0.14632443487379412;0.001256188406479827;0.14720262022199115;0.15149090909090906;0.15577919795982698;0.0011888320282838964
109;110;0.08837736123110457;0.0925340909090909;0.09669082058707723;0.0011523601896145836;0.0962212300671259;0.10067272727272727;0.10512422447832864;0.0012340778836502544;0.10080443365422394;0.10506136363636363;0.10931829361850333;0.0011801384793852898
110;111;-0.003368506921018667;-0.0008159090909090909;0.001736688739200485;0.0007076505684487557;-0.003453256222834247;-0.000925;0.001603256222834247;0.0007009024031004355;-0.003768679907137651;-0.0011909090909090912;0.0013868617253194684;0.0007146292149580206
111;112;-0.006006097054977043;-0.001343540669856459;0.0033190157152641247;0.0012925893133009989;-0.0054394840156201454;-0.0009971291866028708;0.0034452256424144043;0.001231543364537845;-0.005251364160531623;-0.0007712918660287083;0.0037087804284742067;0.0012419996869465395
112;113;0.10631260947495931;0.11561148325358853;0.12491035703221774;0.0025779044539490635;0.11281570449440641;0.12192344497607657;0.13103118545774672;0.002524917028884634;0.1166832185707204;0.12590813397129186;0.13513304937186332;0.002557401150351147
113;114;0.14322224311428927;0.15431578947368418;0.1654093358330791;0.0030754372250647232;0.17934637709363424;0.1905837320574163;0.20182108702119836;0.003115304939219296;0.20026114431590578;0.21214736842105264;0.2240335925261995;0.003295189373547111
114;115;0.14450278820319795;0.1535291866028708;0.16255558500254363;0.002502366758769529;0.20235401954266438;0.21281913875598085;0.22328425796929732;0.0029012198760152846;0.2418169392091653;0.25466220095693776;0.2675074627047102;0.003561061076861459
115;116;-0.09340473339224634;-0.08768229665071771;-0.08195985990918908;0.0015864174000653076;-0.08778094673652805;-0.08211866028708135;-0.07645637383763466;0.0015697420789935546;-0.08884270038036915;-0.08342775119617224;-0.07801280201197533;0.0015011733627281114
116;117;0.0051026915520635385;0.01350622009569378;0.021909748639324024;0.0023296900438954018;-0.002400684895903193;0.005967464114832535;0.014335613125568265;0.002319881860926297;-0.0037817165857567583;0.004545454545454545;0.012872625676665849;0.002308521661760869
117;118;0.04748126052445043;0.056937799043062204;0.06639433756167397;0.0026216134713104838;0.0448040202709402;0.053902392344497604;0.06300076441805501;0.0025223198475941657;0.047446730900251026;0.056679425837320566;0.06591212077439011;0.0025595578525782667
118;119;0.05678563352362306;0.06545071770334927;0.07411580188307548;0.0024022004849766536;0.07299424382097144;0.0821531100478469;0.09131197627472235;0.002539090496490902;0.07774342537798269;0.08741626794258374;0.09708911050718479;0.002681578922701432
119;120;0.0335811974805632;0.04262966507177034;0.05167813266297747;0.0025084849477573228;0.06845093061805874;0.07821244019138757;0.0879739497647164;0.002706159864669158;0.08630349731225342;0.09623157894736843;0.10615966058248344;0.002752338237470488
120;121;-0.142035242524703;-0.13653588516746412;-0.13103652781022523;0.0015245736379027991;-0.12732710373087305;-0.12124784688995215;-0.11516859004903122;0.001685337779605885;-0.12590841498357877;-0.11977799043062201;-0.11364756587766525;0.0016995228815758392
121;122;-0.04971167996178792;-0.04206315789473684;-0.03441463582768575;0.002120381410928806;-0.051430380115614675;-0.043580861244019144;-0.03573134237242361;0.0021761032725219256;-0.049068100509473696;-0.04114641148325359;-0.033224722457033486;0.0021961108312304285
122;123;-0.0033898224501608338;0.0062162679425837334;0.0158223583353283;0.002663073378348839;-0.007656310731790379;0.0013588516746411486;0.010374014081072675;0.0024992518313373575;-0.009635656186398995;-9.952153110047844e-05;0.009436613124198039;0.002643679717198612
123;124;0.004220335189680206;0.01292822966507177;0.021636124140463335;0.002414068680469769;0.009310089934671254;0.018220095693779904;0.027130101452888553;0.0024700995064484014;0.005425251302446855;0.014394258373205742;0.02336326544396463;0.00248645629843342
124;125;-0.012964360486796007;-0.0035942583732057414;0.005775843740384524;0.0025976509142532646;-0.0038313567095087783;0.005379904306220097;0.01459116532194897;0.002553615778021165;0.001366814514058002;0.010141626794258373;0.018916439074458745;0.0024326201428481035
125;126;-0.05515696278313101;-0.049102392344497606;-0.0430478219058642;0.0016784940275640823;-0.0292668229610545;-0.022047846889952153;-0.014828870818849805;0.002001299405678116;-0.021483970635462007;-0.014365550239234448;-0.007247129843006889;0.0019734225973354405
126;127;-0.15345756019019882;-0.14812822966507178;-0.14279889913994473;0.0014774375074179144;-0.12858438402466207;-0.1222334928229665;-0.11588260162127093;0.001760642321333929;-0.1265795564562827;-0.12021244019138753;-0.11384532392649238;0.0017651403566534228
127;128;-0.061028636231342935;-0.05255119617224881;-0.04407375611315468;0.0023501803558889215;-0.055640767132579365;-0.047238277511961725;-0.038835787891344085;0.002329402025762749;-0.05164406107349089;-0.04358086124401914;-0.03551766141454738;0.0022353415314925102
128;129;-0.0176262654687803;-0.008220095693779905;0.0011860740812204926;0.0026076498654387715;-0.02059236989057637;-0.010549282296650718;-0.0005061947027250671;0.00278422106333807;-0.021848139163099876;-0.012051674641148325;-0.002255210119196773;0.002715850341159889
129;130;-0.012214059115157435;-0.0038583732057416256;0.004497312703674185;0.0023164267452674015;-0.011609294233286827;-0.00410334928229665;0.0034025956686935263;0.0020808550993264984;-0.012124065053536583;-0.003804784688995215;0.004514495675546152;0.0023063341234602366
130;131;-0.026449054748899588;-0.017374162679425837;-0.008299270609952085;0.0025158105424302325;-0.02769742172606425;-0.019978947368421054;-0.01226047301077786;0.00213977411651599;-0.027953601741284365;-0.02024688995215311;-0.012540178163021855;0.0021365132078856896
131;132;-0.06967732760053448;-0.06351578947368422;-0.05735425134683396;0.0017081484229723317;-0.0627170509995858;-0.05532057416267942;-0.047924097325773046;0.0020505075168579016;-0.05998895952398072;-0.052999043062200955;-0.04600912660042119;0.0019377977600864094
132;133;-0.15062556114309175;-0.14541435406698563;-0.14020314699087952;0.0014446904272234545;-0.12869456884650557;-0.12243253588516749;-0.11617050292382941;0.001736008364680586;-0.12261636314090023;-0.11685933014354068;-0.11110229714618113;0.001596008437014476
133;134;-0.04394290084663387;-0.03495693779904307;-0.02597097475145227;0.002491156963184511;-0.0273527601490864;-0.017730143540669856;-0.008107526932253315;0.0026676549014452828;-0.01797490407508421;-0.008445933014354066;0.0010830380463760798;0.0026416937710739825
134;135;0.000995430153059548;0.01059712918660287;0.020198828220146195;0.002661855972379764;0.0069903960761063515;0.016983732057416268;0.026977068038726182;0.002770428543210739;0.008190272238907498;0.01822775119617225;0.028265230153437;0.0027826661944611586
135;136;0.006886561821836279;0.015152153110047844;0.02341774439825941;0.002291450029720079;0.006246704012867288;0.01342775119617225;0.02060879837947721;0.001990784471169495;0.006442096074297467;0.01360956937799043;0.020777042681683393;0.001987021417111319
136;137;-0.013163320574521666;-0.004482296650717703;0.00419872727308626;0.0024066194219609653;-0.012447677400812717;-0.004415311004784688;0.0036170553912433408;0.0022267936527603782;-0.01583910050841208;-0.007477511961722488;0.0008840765849671044;0.0023180631192284184
137;138;-0.053472250929534115;-0.046669856459330146;-0.03986746198912618;0.0018858114885437608;-0.05345818626154547;-0.04635598086124402;-0.03925377546094257;0.001968927352942002;-0.051494261229121444;-0.04445933014354067;-0.0374243990579599;0.0019502770561766686
138;139;-0.13441595421474292;-0.12959043062200956;-0.12476490702927621;0.0013377683210339688;-0.12207057239309972;-0.11671004784688994;-0.11134952330068017;0.001486085350995545;-0.12123339096087338;-0.11576076555023923;-0.11028814013960508;0.001517162804520645
139;140;0.04702037005668536;0.05612822966507178;0.0652360892734582;0.002524950054098197;0.07314046840767906;0.08430047846889954;0.09546048853012003;0.003093862797563179;0.09180181975426396;0.10166889952153109;0.11153597928879821;0.0027354268360935126
140;141;0.05653710150288121;0.06465263157894736;0.07276816165501351;0.0022498489201272487;0.06354673827615011;0.07179904306220095;0.08005134784825178;0.0022877666446228144;0.07048882977565363;0.07912535885167464;0.08776188792769565;0.0023942842221283743
141;142;0.034393172720504996;0.04350047846889952;0.05260778421729404;0.002524796508822288;0.038645332679004;0.04768803827751196;0.056730743876019916;0.0025068875643540793;0.04052530240300534;0.04916363636363636;0.057801970324267385;0.00239478458595584
142;143;-0.006934797311075331;-0.00039425837320574146;0.006146280564663848;0.0018132179079482925;-0.006590293542465328;-0.0002105263157894741;0.00616924091088638;0.001768647552416868;-0.0063321449359793735;-0.00017416267942583743;0.005983819577127699;0.0017071626375865085
143;144;-0.08787206414898935;-0.08335502392344497;-0.0788379836979006;0.0012522482177206712;-0.08595433324255343;-0.08110430622009569;-0.07625427919763796;0.0013445613480313541;-0.08510142704325652;-0.08029473684210527;-0.07548804664095402;0.0013325471850987717
144;145;0.14474487986443002;0.15228708133971292;0.1598292828149958;0.0020909064085155456;0.1870351628393224;0.19677703349282297;0.20651890414632354;0.0027007154140721;0.22247237548844012;0.23557129186602868;0.24867020824361724;0.003631381140939597
145;146;0.13591156226929174;0.14560000000000003;0.15528843773070833;0.0026859023331622066;0.16210175453302597;0.1732688995215311;0.18443604451003623;0.003095840796325562;0.1838689202060668;0.19462583732057417;0.20538275443508155;0.0029821143076465472
146;147;0.10018260050529995;0.10735502392344498;0.11452744734159001;0.001988393725457183;0.11239501140366656;0.12005933014354069;0.1277236488834148;0.0021247606846126446;0.11659227996485289;0.12373971291866026;0.13088714587246764;0.0019814656790231784
147;148;-0.004700130911968685;-0.0008114832535885167;0.003077164404791651;0.0010780404549006145;-0.005454629318760437;-0.00156555023923445;0.002323528840291537;0.0010781600567491621;-0.004071342746569985;-0.00023349282296650735;0.00360435710063697;0.0010639579208380156
